"","mean","sd","2.5%","25%","50%","75%","97.5%","Rhat","n.eff"
"b[1]",-0.0433689024922015,0.133242181181777,-0.305211239082819,-0.135233786217701,-0.042899040952426,0.0473179734197147,0.220405228095546,1.00188673745665,1400
"b[2]",-0.153830381702559,0.189122810190575,-0.513750301651563,-0.282803601387192,-0.152834459410618,-0.022120658630796,0.211620031117041,1.00078940243657,3000
"b[3]",-0.158852233969541,0.220392575694261,-0.581406737909979,-0.311742924795174,-0.154570636169884,-0.00717414842278123,0.260950635813465,1.00085138101212,3000
"b[4]",-0.0777712197516494,0.207038933552054,-0.476963628457783,-0.217202837088891,-0.0735483230936933,0.0668121400289214,0.313172746419692,1.00086296120292,3000
"b[5]",0.0924474747119583,0.181016699846167,-0.25417671812383,-0.0307372060890615,0.0958738808839502,0.215458030927226,0.44128213721166,1.00113172060907,3000
"b[6]",0.188386799669472,0.142877618692985,-0.0905459433282429,0.0945313351544412,0.190160391639698,0.286974490844105,0.467404679894612,1.00124513518118,2700
"b[7]",0.206749218562382,0.125622301705417,-0.041791171807533,0.121594566356843,0.209870442577013,0.291219680765486,0.449372618054821,1.00148288479606,2000
"b[8]",0.179721198014763,0.12165278659156,-0.0553642348142021,0.100159317642288,0.178366133451511,0.264495878236601,0.415505870888214,1.00229538948427,1100
"b[9]",1.05828905685478,1.55524475567323,-2.02550626451371,-0.00635605249901063,1.03713173002727,2.10681835705894,4.05317244378712,1.00066494145036,3000
"b[10]",-0.297436564615664,0.313008731482209,-0.900265195441028,-0.506508060844888,-0.302352111451023,-0.0897539439733636,0.313377349009883,1.00057450040154,3000
"b[11]",-0.129385546871018,0.386271274488928,-0.897748256528909,-0.375577947858501,-0.133130667511706,0.133658850381214,0.60018961384167,1.00063748180238,3000
"b[12]",-0.153068678987156,0.31355113387013,-0.764424865566174,-0.368487206431301,-0.155608064681465,0.0488160151599134,0.470629669033312,1.00082912184457,3000
"b[13]",-0.321045735681097,0.324452394921683,-0.947717193670275,-0.53658407494775,-0.319965721639002,-0.112002192779824,0.333794673694648,1.00080832330054,3000
"b[14]",0.137004419994113,0.327334055895807,-0.495880829594808,-0.0900391831391472,0.136365900465007,0.355979281280649,0.78353939173915,1.00119560784937,2900
"b[15]",0.171477889856268,0.405342700133983,-0.636611489760446,-0.109156797951406,0.17288425215366,0.441533234465892,0.945310849717079,1.00120102430426,2800
"b[16]",-0.0821309087884939,0.279814578532435,-0.642795955527828,-0.271694669674451,-0.0853162017194577,0.104057956981114,0.46860870233409,1.00093411294186,3000
"b[17]",-0.0933923266492621,0.308593942269741,-0.679728033848053,-0.300999171263723,-0.101164306626632,0.111227758296253,0.518242402259862,1.00073525930252,3000
"b[18]",0.467869604783013,0.712315640540504,-0.893049363183,-0.0411951365458673,0.488597172032206,0.957207158625591,1.85409513511988,1.00116668737693,3000
"b[19]",2.14426775410176,0.600555962188682,0.988991223124142,1.73320586817775,2.14423787219443,2.54982689700461,3.33188852812432,1.00069357962944,3000
"b[20]",-0.14169557610344,0.317054634448535,-0.762106971938378,-0.354925015833707,-0.149271222822891,0.0680653697924998,0.481939943861027,1.00089408741391,3000
"b[21]",0.334624690106608,0.293967271173686,-0.238691459846747,0.13665001992157,0.332128726693632,0.532658801062925,0.899155130230042,1.0008917026525,3000
"b[22]",0.356030070706694,0.340087504464896,-0.301387493583725,0.126496483689942,0.361076261290057,0.588868639525466,1.02207763476101,1.00067406136715,3000
"b[23]",0.208166007739926,0.33262530423349,-0.443695155393559,-0.0155937585095936,0.212611086039895,0.434149978876774,0.854846480144857,1.00173318068569,1600
"b[24]",0.164432807741085,0.333954910884137,-0.49550458288001,-0.0568011072443807,0.172092852881792,0.384483413621657,0.830932910916262,1.00058785316094,3000
"b[25]",-0.196785692722332,0.390028709987209,-0.961299499880461,-0.457408596366755,-0.191846915376413,0.0563222896297847,0.550289257616866,1.00079736028038,3000
"b[26]",0.238399863013116,0.95704209592997,-1.66265495682203,-0.383415486165653,0.226937361993573,0.872279846637001,2.13739995607668,1.00235765843964,1100
"b[27]",0.112123596489694,0.314850307803059,-0.505212957945037,-0.106238422889318,0.109542531912932,0.324037495055139,0.733382077851094,1.00090174020201,3000
"b[28]",-0.0524146307740192,0.323278304937381,-0.671549741916414,-0.27629646220609,-0.0562104917584676,0.164518116117693,0.588756962317996,1.00089487507852,3000
"b[29]",-0.00918842618605214,0.299796283436709,-0.587930368478551,-0.209380306842987,-0.0122054679930879,0.188992220139973,0.580944431482053,1.00074469325008,3000
"b[30]",0.126476141197415,0.305732106998626,-0.474603796279224,-0.0833829302793862,0.12511580190995,0.3310649719889,0.729248400875004,1.00065811363176,3000
"b[31]",-0.202986387281233,0.507149034233908,-1.18342956023774,-0.543334629388413,-0.206829145133644,0.142036714039704,0.773939439669132,1.00073261259821,3000
"b[32]",0.0766823691652947,0.308227095199391,-0.521555534416067,-0.136134577248974,0.0733025907742494,0.286516451362681,0.684507623626929,1.00105853760235,3000
"b[33]",1.26578794253665,0.921091163022636,-0.574492617507523,0.649136237829855,1.24258633420127,1.91216858321094,3.02730766677677,1.00090938451616,3000
"b[34]",0.534881009079566,0.358511254641429,-0.171890966264316,0.291721332795948,0.531445423821836,0.774501938923774,1.23716647242016,1.00086222042516,3000
"b[35]",0.0253265114993751,0.357619505245983,-0.683107212662607,-0.213526345507151,0.0293041111507426,0.258823964573888,0.745104934653924,1.0014871915139,2000
"b[36]",0.0682318327044246,0.420987085540874,-0.738806586838421,-0.223300300787444,0.064250587707705,0.359068053435563,0.910290095020267,1.00132766011961,2400
"b[37]",-0.0924021125989307,0.374299386186365,-0.806627371759452,-0.343645565192866,-0.0931180872024421,0.15119790198563,0.655474935629258,1.00089471005145,3000
"b[38]",0.219582252619028,0.45616699964358,-0.673876517636454,-0.0909614282591512,0.220524425225728,0.514324977033772,1.14491202482944,1.00179145700426,3000
"b[39]",0.37012518934692,0.296723248211021,-0.195826296639845,0.168518968657297,0.369585333224829,0.563206707554341,0.942415940241307,1.001033646643,3000
"b[40]",-0.192036680631929,0.302504333417887,-0.799472779628645,-0.395256611600158,-0.191674928934918,0.00817420833492849,0.400929000237506,1.00077814415691,3000
"b[41]",0.668867386456597,0.596088472500205,-0.482675279348942,0.267200426208858,0.658857487476682,1.08304059963847,1.85283651278658,1.00108019478874,3000
"b[42]",-0.136585810887257,0.295289383360047,-0.724468913552221,-0.334380396365997,-0.139474296273942,0.0616527404160033,0.45140242198349,1.00070236116572,3000
"b[43]",0.244699840040828,0.359636881888898,-0.451550408517385,-0.00173069993210291,0.2498729879436,0.49220704895965,0.951397312196038,1.00155172006896,1900
"b[44]",-0.0463563103703881,0.322437973702446,-0.67473540982827,-0.261764622908353,-0.0486534272168365,0.161644738318722,0.597200416936627,1.00077437009711,3000
"b[45]",-0.231211616674558,0.298546481558128,-0.812541449334507,-0.428249476423465,-0.234860952029708,-0.0331691510425942,0.370267813749522,1.00071363338513,3000
"b[46]",0.0708158957498219,0.451916679217447,-0.810562476953596,-0.233826840335573,0.0824118008173498,0.366942808195318,0.96363106718793,1.00099747850691,3000
"b[47]",-0.448285622781253,0.357366214908389,-1.16513910284508,-0.681087137450506,-0.445338954531674,-0.208021464652247,0.26752942485173,1.001155483237,3000
"b[48]",0.568390796264483,0.649455996386553,-0.684245586026859,0.120361576575724,0.574918153122036,0.990953421573852,1.85254960564172,1.00149960439548,2000
"b[49]",-0.139334265950321,0.30495569658655,-0.746923577932996,-0.337513164054901,-0.139647446573371,0.0639769614174596,0.462535346748849,1.0011040434791,3000
"b[50]",-0.110381019134599,0.301162930982422,-0.697469057825423,-0.315754283712065,-0.109667924054141,0.0846956034928121,0.488302361876897,1.00086160345394,3000
"b[51]",0.602218745405449,0.336868892932663,-0.0669313745587844,0.379704891972675,0.600601165696885,0.828991766068502,1.25800000665074,1.0005035726494,3000
"b[52]",0.308731310132778,1.14340204943208,-1.94634117673562,-0.474190737005803,0.322022275910722,1.06814145820636,2.53011555444608,1.00063070527079,3000
"b[53]",-0.114341395001648,0.319935184104854,-0.727372337434775,-0.331023336973692,-0.117301677092156,0.100739968680174,0.524562138127983,1.00056503583897,3000
"b[54]",-0.229076705212379,0.321179565375274,-0.852662509798959,-0.445015411803277,-0.231248082190055,-0.0208392085546101,0.417007131079131,1.00060350066029,3000
"b[55]",0.573352599345469,0.467044919783327,-0.338519599042884,0.264427326286558,0.574498285678916,0.87285731743672,1.5015087497016,1.00051072142772,3000
"b[56]",-0.0477875334767014,0.308435054294724,-0.663040931516701,-0.251783932549087,-0.0490658514667851,0.150235640194403,0.558580069258635,1.00071587147829,3000
"b[57]",0.838618997195056,0.886165614582866,-0.897742309529993,0.241351942586132,0.853600253480306,1.43804285280204,2.51110574263198,1.00132682034734,2400
"b0",0.154500435378102,0.808209165240726,-1.44484935590969,-0.407910409834318,0.170138055451717,0.717117610702425,1.68721245951541,1.00062955746523,3000
"b_fb",0.871246041913432,0.101761823087658,0.676181743566051,0.801629508129624,0.872549340107335,0.941077155464188,1.06913885987214,1.00057003475544,3000
"deviance",440.130842657937,11.4244089661258,419.666186497104,432.343651679562,439.569921596479,447.256010756524,464.603674610048,1.00161911759266,1800
"mu[1]",-6.28685077275954,0.267451722196555,-6.81425715835867,-6.47010938437933,-6.28891418852268,-6.10896938916602,-5.75314514404269,1.00064577862274,3000
"mu[2]",-5.62977135966431,0.258713533632804,-6.13790051611677,-5.80045679199851,-5.62943128908026,-5.45659632358824,-5.12070393065008,1.00084619453046,3000
"mu[3]",-5.11767415627075,0.258168863351515,-5.62216104999275,-5.28939365695324,-5.12332251957146,-4.94231373671697,-4.60873852816851,1.00078445608037,3000
"mu[4]",-4.95934861467027,0.257467284304503,-5.45407477982498,-5.13276180289389,-4.96046918465132,-4.78680450695308,-4.4489768230883,1.00077371659966,3000
"mu[5]",-5.00171658224509,0.258184218370084,-5.5084335985539,-5.17112276437989,-5.00624556303285,-4.82886212675002,-4.48060454503777,1.00072562333504,3000
"mu[6]",-4.96155201046222,0.257136756427515,-5.46834643032784,-5.13437370225561,-4.96340381497826,-4.78839832568974,-4.45726851951041,1.0009661592266,3000
"mu[7]",-5.26597840860693,0.259611027077104,-5.78664742845451,-5.43765499027462,-5.26561042123337,-5.09476126088203,-4.76181356752357,1.00092460532602,3000
"mu[8]",-5.43814809046384,0.260754686678317,-5.94609007823651,-5.61488655682677,-5.43581405240503,-5.26347461473971,-4.9258119853628,1.00080793664022,3000
"mu[9]",-5.28814046491754,1.52977373030754,-8.27874256876746,-6.34704241411278,-5.27422470675544,-4.24735830090262,-2.29933418532236,1.00066870831743,3000
"mu[10]",-6.20839642708635,0.177486654823185,-6.55837985538885,-6.33061966342462,-6.20619232506665,-6.08556663338765,-5.86152449609067,1.00067002172692,3000
"mu[11]",-5.3134614939633,0.160111133725769,-5.61594803498725,-5.42102829807662,-5.31055479254248,-5.2055896764497,-5.00187807190885,1.00083025369776,3000
"mu[12]",-4.40414225872424,0.152474773232436,-4.70821747687451,-4.50830072195007,-4.40491252844007,-4.30105215312148,-4.10148284348451,1.0007636452249,3000
"mu[13]",-4.05396382526865,0.150978605277104,-4.34822852498004,-4.15949564946546,-4.05340210718352,-3.95146807146193,-3.75329472768958,1.00077637835763,3000
"mu[14]",-4.23294364586908,0.15078438605336,-4.53797528806922,-4.33724292907001,-4.23057700959301,-4.13194384262768,-3.93548133930835,1.00068284280731,3000
"mu[15]",-4.53889899231135,0.152662104144004,-4.84179510197367,-4.64344665142745,-4.53738675263712,-4.434825496876,-4.2454562280195,1.00101242155018,3000
"mu[16]",-4.849286047972,0.15331553051832,-5.15686365349157,-4.95042399919054,-4.84966888095028,-4.74880218377292,-4.54472542309687,1.0009399968372,3000
"mu[17]",-5.18753230342387,0.155919117278039,-5.49662386321393,-5.29291918141048,-5.18685553604483,-5.08194656094603,-4.88368578163564,1.00073205555109,3000
"mu[18]",-5.32484867721623,0.160812156450518,-5.64166179275167,-5.4347616802366,-5.32532823373545,-5.21545310555916,-5.00701002824176,1.00088629651159,3000
"mu[19]",-4.64372610782139,0.293559650178245,-5.22089120606273,-4.83181482820592,-4.64394026438509,-4.44734342934824,-4.08568823578158,1.00107755295892,3000
"mu[20]",-4.23776857458316,0.295306717732384,-4.8197139518349,-4.43126712507173,-4.23895872253298,-4.04103394753756,-3.65898424249845,1.00116011049093,3000
"mu[21]",-4.77141236927091,0.290508780080472,-5.35134841130851,-4.9617776303047,-4.77240189469218,-4.57491847068883,-4.21328220949689,1.00110241038224,3000
"mu[22]",-5.24709130275435,0.292804669105545,-5.82022916459704,-5.44458345299936,-5.24849802170104,-5.0503410420341,-4.66561457202945,1.00129636336825,2500
"mu[23]",-5.24345925703386,0.291235802522979,-5.82506044925213,-5.43206253859535,-5.2419452009701,-5.04606741882183,-4.69892713763905,1.0012175998863,2800
"mu[24]",-5.79731340962967,0.294824664579153,-6.38724860272375,-5.99218255999884,-5.79711910817093,-5.59671977051908,-5.23591781823287,1.00113669382428,3000
"mu[25]",-6.18970708007652,0.301446139799607,-6.78890502662848,-6.38893054537525,-6.18554257367525,-5.98837462430481,-5.5979925160106,1.00128960098983,2500
"mu[26]",-5.05664391814129,0.0979036676221501,-5.24831620287666,-5.12417009703505,-5.0561749232822,-4.9908193527957,-4.86987317402679,1.00189026308215,1400
"mu[27]",-4.530347483887,0.07663562652187,-4.67616398071516,-4.58329184482281,-4.52987860353143,-4.47890322480346,-4.37543814849821,1.00096193412632,3000
"mu[28]",-3.82679573810964,0.0618887064780474,-3.94866520327764,-3.86656487044413,-3.82746003972447,-3.78692871196071,-3.70703288157606,1.00054340632976,3000
"mu[29]",-3.46313703331198,0.0574685202542507,-3.57980359054913,-3.50124135503573,-3.46259574308481,-3.42575943576344,-3.34924728556562,1.00057306595559,3000
"mu[30]",-3.45410084922318,0.0598605119410114,-3.57614010370165,-3.49278825457011,-3.4539111571662,-3.41484203214278,-3.33678848253183,1.00060227385493,3000
"mu[31]",-3.56509719520372,0.0612818957995149,-3.68461151945101,-3.60741203144545,-3.56536567707821,-3.52528795561136,-3.44255894833083,1.00086530822911,3000
"mu[32]",-3.82241774081945,0.0652321707328122,-3.94909894822309,-3.86604912725207,-3.82104115676847,-3.77908578729632,-3.69175168114457,1.00073744225681,3000
"mu[33]",-4.08615353126732,0.0690227877134811,-4.21986561007266,-4.13432876995747,-4.08706512504958,-4.03950010122523,-3.95203051561454,1.00052666161005,3000
"mu[34]",-4.32118276307559,0.0770944023714845,-4.47361464366019,-4.37215194123939,-4.32211293511703,-4.2696795073709,-4.16965073818211,1.00098469432419,3000
"mu[35]",-6.45512099928746,0.214411482997624,-6.88605997915901,-6.59796153134992,-6.45474926002914,-6.30820474757091,-6.03639513110269,1.00062877479717,3000
"mu[36]",-5.57360035501906,0.203163242905532,-5.99347259353713,-5.70656151728412,-5.57553221352876,-5.43685250680604,-5.18663485465502,1.00115039722099,3000
"mu[37]",-4.83777654790275,0.197534766082403,-5.24195600240991,-4.97052942549115,-4.83327791179923,-4.70509302592201,-4.46650279334908,1.00075352141706,3000
"mu[38]",-4.56226642212192,0.196260935997281,-4.95183752752928,-4.69559062579975,-4.55850162304391,-4.43058707825805,-4.19244309863856,1.00092420708701,3000
"mu[39]",-4.65691854003674,0.196133965593984,-5.06012780951016,-4.78733007820542,-4.65318874583736,-4.52487622276146,-4.28755474339854,1.00091159965455,3000
"mu[40]",-4.81911068784579,0.197055118156672,-5.21751754835059,-4.94927487492054,-4.81659154566378,-4.68514290133492,-4.44231890783818,1.00098645494353,3000
"mu[41]",-5.31453696986131,0.200143012168104,-5.72303118623378,-5.44583808585985,-5.31378049796435,-5.17931466738831,-4.92394817432312,1.00083019513728,3000
"mu[42]",-5.75919382614494,0.207363854362895,-6.16797011375087,-5.89970262330422,-5.75740998267751,-5.61971388039785,-5.35734155422702,1.00091162156464,3000
"mu[43]",-5.82427357289957,0.206652178076448,-6.24235442035007,-5.96115337603,-5.82284812371797,-5.68033788984606,-5.42575617564135,1.00119883153743,2900
"mu[44]",-5.46022110855733,0.170493019787003,-5.80039074523431,-5.57512466018123,-5.46169232204021,-5.34484053332356,-5.13443171363765,1.00180410991203,1500
"mu[45]",-4.14904538061069,0.138526471280749,-4.41402505583042,-4.24198936759777,-4.14948794127867,-4.05668756303212,-3.87818873505752,1.0012244605059,2800
"mu[46]",-3.48077157314532,0.130975680520283,-3.7377144159883,-3.57041968303957,-3.48392546169078,-3.38992358443357,-3.21852717554152,1.00102333634183,3000
"mu[47]",-3.08126900208987,0.131496477854614,-3.33419196335696,-3.16748494796539,-3.08200074310941,-2.99452907588456,-2.821429328284,1.00107233084599,3000
"mu[48]",-3.194600923733,0.129224835594022,-3.44272948702855,-3.28227389682742,-3.1965972420036,-3.11301499880701,-2.93674884782917,1.00125135693464,2700
"mu[49]",-3.62828396679569,0.133590354961471,-3.89514411209044,-3.71720196630191,-3.6272117736934,-3.54044245317305,-3.37128841449494,1.00083479223248,3000
"mu[50]",-3.92613489190307,0.133392782383708,-4.18507443990578,-4.01550779030672,-3.9265009397454,-3.83458715580046,-3.66320387125104,1.00079560031743,3000
"mu[51]",-4.16675168628434,0.133354744668788,-4.425201773874,-4.2554669445838,-4.16883486460891,-4.0765445098896,-3.90270936492548,1.00111944481863,3000
"mu[52]",-4.37168260015838,0.141524698906151,-4.65136623669021,-4.46784311104229,-4.36994726661004,-4.27923646017868,-4.09602491845383,1.00148151752876,2700
"mu[53]",-5.08847438255912,0.300090708245468,-5.70112380146676,-5.2816837059959,-5.08747783927595,-4.88709812801509,-4.51157140653792,1.00195011724136,1400
"mu[54]",-3.29713775924337,0.290089459118466,-3.88344337578634,-3.48594921936737,-3.2919516735649,-3.10187651285034,-2.74033329805935,1.00137006865946,2300
"mu[55]",-3.12657308715592,0.285290433072094,-3.70601629440574,-3.32031732363818,-3.12235452864001,-2.93278144128289,-2.57925580442546,1.00122459433509,2800
"mu[56]",-3.38123272811175,0.282381210294731,-3.9516159139074,-3.57268873189136,-3.37397266428141,-3.1921260051843,-2.83504229882561,1.00126991932863,2600
"mu[57]",-3.2290107749801,0.285266135447712,-3.79770093020229,-3.41913607855087,-3.22248122969047,-3.03344533289962,-2.67849379257796,1.00117299603092,3000
"mu[58]",-4.00997797726149,0.287043620960753,-4.59656672264444,-4.19670935583871,-4.00660795754951,-3.81450217798826,-3.44825623204718,1.00127460742638,2600
"mu[59]",-4.22895570065768,0.289794990065743,-4.82133405766103,-4.42233691549127,-4.22405129726625,-4.03180692777699,-3.66921512341213,1.0011885290593,2900
"mu[60]",-5.71449208726144,0.124474998318159,-5.95290082669767,-5.79820614472109,-5.71518361149636,-5.63193290753824,-5.46695464501267,1.0025778473171,960
"mu[61]",-5.22024566058803,0.106135095508203,-5.42645218319261,-5.29086566506015,-5.22356677100672,-5.15008084165961,-5.00698786439306,1.00055566550252,3000
"mu[62]",-4.65099708446842,0.0958463139961939,-4.83507574407623,-4.71722241150191,-4.6508904509884,-4.58723801113432,-4.46004681441595,1.00124325401663,2700
"mu[63]",-4.42414116996874,0.0948212334010563,-4.60966044982229,-4.48744217196784,-4.42604216803346,-4.35988770218046,-4.233951129742,1.00084809229713,3000
"mu[64]",-4.39579229826115,0.0965777769772283,-4.58229761234543,-4.4622611723983,-4.39680479232484,-4.333564127057,-4.20756765783519,1.00093714611665,3000
"mu[65]",-4.47898196084709,0.0970619822420036,-4.66236910246809,-4.54419852881155,-4.47827438017986,-4.41404434329937,-4.28538460133384,1.00080999115893,3000
"mu[66]",-4.76487050981239,0.0996704415742559,-4.96025896840143,-4.83120051737526,-4.76590428915126,-4.69814645079289,-4.56887556136332,1.00108470675778,3000
"mu[67]",-5.04353903040067,0.102919572588421,-5.24338765448765,-5.11128189864796,-5.04587206234914,-4.97676114585689,-4.84043131500782,1.00080215988309,3000
"mu[68]",-5.0779819556354,0.107968025263411,-5.29469108836622,-5.14939148197498,-5.07904766708948,-5.00746942347506,-4.85692948156653,1.00052394031104,3000
"mu[69]",-5.19181277457921,0.123815535558064,-5.43050937164932,-5.27554552886128,-5.19422866362378,-5.10700839051745,-4.94810917254113,1.0007482441973,3000
"mu[70]",-4.74394403821779,0.108737877856158,-4.95918443308677,-4.81858210048574,-4.74368945991039,-4.67025342367185,-4.52947180664217,1.00130988881569,2500
"mu[71]",-4.0877056092023,0.0998938336115005,-4.28235864215514,-4.15416327077992,-4.08740832512251,-4.01987678045937,-3.88762399919341,1.00066311862698,3000
"mu[72]",-3.6564668534267,0.0951427319147278,-3.84272492371782,-3.72068171688317,-3.65742695203496,-3.59248375837574,-3.46995078086545,1.00094430327289,3000
"mu[73]",-3.6535814973332,0.095947577033406,-3.84105715822092,-3.71736431288948,-3.65332784263793,-3.59060799247368,-3.45942168884951,1.00084665676733,3000
"mu[74]",-3.73576654310643,0.0997639090048052,-3.93735477212988,-3.80275150887995,-3.73493358828621,-3.67130906424455,-3.53803627250649,1.00127778777489,2600
"mu[75]",-4.14201053503834,0.101180680107925,-4.33629594802731,-4.2094734694423,-4.14466656550019,-4.07390640183851,-3.94410578924277,1.00097012865319,3000
"mu[76]",-4.34828070711495,0.102630706530623,-4.55648964681003,-4.41865211196015,-4.34899145803627,-4.27819847722488,-4.15170706923034,1.0008887522672,3000
"mu[77]",-4.5537350490864,0.107892766796804,-4.77642340861259,-4.62431869034478,-4.55233680156846,-4.48122203858817,-4.34610353347469,1.00141557982272,2200
"mu[78]",-4.92139830888976,0.662302888301848,-6.19831596791509,-5.3793136340032,-4.91520927041011,-4.45598309720373,-3.6113212409109,1.00105946029905,3000
"mu[79]",-5.68542152142263,0.662078465450013,-6.97907267130475,-6.13271363800393,-5.67886009244958,-5.20603753499848,-4.40482057203561,1.001129028987,3000
"mu[80]",-5.90743866797304,0.664669348738796,-7.20768250144678,-6.36473702601078,-5.89648712219191,-5.4335293033057,-4.61804688446664,1.00104581172613,3000
"mu[81]",-5.70134199188177,0.664867767495611,-6.97280708864745,-6.16167084138039,-5.69302728147917,-5.23687325161351,-4.39644783086255,1.00104772605364,3000
"mu[82]",-3.29023530388358,0.533064857141661,-4.32763943115771,-3.65757190333352,-3.28984822926315,-2.92843245266214,-2.24884816330158,1.00106609149744,3000
"mu[83]",-4.6627241514503,0.517823530550217,-5.65454433654957,-5.02107095281037,-4.6635727984794,-4.30031748982874,-3.65505044390989,1.00100120164998,3000
"mu[84]",-4.31407913556287,0.518441956033307,-5.29890800666755,-4.67888123340718,-4.31572926596233,-3.96044837335089,-3.3054019550314,1.00115904628607,3000
"mu[85]",-5.1382868353534,0.113242137898482,-5.35994127620263,-5.21481070734326,-5.14005270555202,-5.06479837942282,-4.91318131397357,1.0014985223812,2000
"mu[86]",-4.49255189844718,0.0948647175225654,-4.678062083837,-4.55659875649113,-4.49313330402247,-4.42986104329392,-4.30147906493842,1.00117974500981,2900
"mu[87]",-3.87054592398442,0.08569221312802,-4.03972184490366,-3.9278254452982,-3.87088509273508,-3.8128406823804,-3.6992549796358,1.00058565932074,3000
"mu[88]",-3.5631382493807,0.0810554518490861,-3.72393123088893,-3.61810281020982,-3.56285101244949,-3.50815168088817,-3.40265616734319,1.0008352708661,3000
"mu[89]",-3.59797696344696,0.0819145599546871,-3.76051334970932,-3.65274912845248,-3.59490720167027,-3.54392262065105,-3.43849897361723,1.00089957824276,3000
"mu[90]",-3.627394381954,0.084509812169708,-3.78788855312522,-3.68329967325494,-3.62793079776619,-3.5719134310951,-3.45886221314176,1.00075914018077,3000
"mu[91]",-3.91072420355327,0.0875410111116012,-4.08168888486377,-3.96951520677273,-3.91310257336308,-3.8517357761568,-3.73788928887674,1.00055165911674,3000
"mu[92]",-4.07013377181241,0.0898199363524366,-4.24304416156751,-4.13147520962896,-4.07240522303802,-4.00796547934059,-3.89102162125262,1.00067480613227,3000
"mu[93]",-4.27388812096759,0.0961303882625281,-4.45902162418385,-4.33701319376378,-4.27449279347942,-4.20916228257671,-4.08266599054113,1.00114700900656,3000
"mu[94]",-4.9014563344949,0.154748533521107,-5.20429280232573,-5.00432622336373,-4.90045619531738,-4.79863470886444,-4.59204416199432,1.00102339322217,3000
"mu[95]",-4.39336275062425,0.1364547971265,-4.66529826860786,-4.48092229324114,-4.39374888429738,-4.30150528915743,-4.13758081317798,1.00077203772784,3000
"mu[96]",-3.97009165746771,0.131341488827006,-4.2344956995936,-4.05369227213447,-3.96784905252173,-3.88160474004885,-3.71751922939614,1.00053539339322,3000
"mu[97]",-3.84841952418104,0.130706952933094,-4.10937977525541,-3.93320892634424,-3.84809526692182,-3.75950826366556,-3.59740259802114,1.00064693101133,3000
"mu[98]",-4.05923891862486,0.133523164887774,-4.32270445834442,-4.14898543600366,-4.0595234402397,-3.96827270153004,-3.79604379258813,1.00071011420515,3000
"mu[99]",-4.19524850456848,0.137691270195656,-4.47193339749497,-4.28686760917502,-4.19732537527342,-4.10075785748054,-3.92567691111427,1.00060236253881,3000
"mu[100]",-4.41480015015787,0.136188024939484,-4.69215461759893,-4.50360876894958,-4.41289462881153,-4.32350804513441,-4.15768341366214,1.00051875544403,3000
"mu[101]",-4.7185783637464,0.140638606357015,-5.00504656582159,-4.81061520086561,-4.71465974444197,-4.62523472422828,-4.44456225603921,1.00062516097695,3000
"mu[102]",-4.91476404338939,0.14524757522652,-5.20159848722145,-5.0099188176623,-4.91732144884889,-4.81807634093891,-4.62494829736536,1.00084890355466,3000
"mu[103]",-5.29338147661523,0.239046997054837,-5.7495112586948,-5.45509396771241,-5.29797298070848,-5.1383013081029,-4.81440301132577,1.00130479321167,2500
"mu[104]",-4.85861333464808,0.225184223273853,-5.27681501135625,-5.01516471148106,-4.86339822871694,-4.70654399784375,-4.41825128584977,1.00075197017698,3000
"mu[105]",-4.11277643327345,0.225070249446921,-4.53515733195419,-4.26747611996961,-4.11766203186374,-3.96509883242447,-3.66959189519012,1.001036617108,3000
"mu[106]",-3.91649623655034,0.223116467344853,-4.33576951544821,-4.06831174442685,-3.9189469440628,-3.76785496136362,-3.46767248923514,1.00088005850369,3000
"mu[107]",-4.08273860237813,0.219755926279695,-4.48753462430072,-4.23504290992055,-4.08563998510899,-3.93973243098832,-3.64234993987338,1.00084774321966,3000
"mu[108]",-4.3454250277496,0.224214308627603,-4.77229538158881,-4.49336880350857,-4.34958784825904,-4.19606582729948,-3.89992778928009,1.00097367514928,3000
"mu[109]",-4.99825129736257,0.232875848301183,-5.44958237090405,-5.15399444772899,-4.99922832941024,-4.84020962535355,-4.5350749690482,1.00096106127144,3000
"mu[110]",-5.24096495446938,0.233669700707063,-5.68560747155373,-5.39645902976944,-5.24074917308892,-5.08839338669783,-4.76421106187638,1.00078670644945,3000
"mu[111]",-5.61081863654358,0.24375486073287,-6.09123216603245,-5.77606716216285,-5.61458512990043,-5.44927429001769,-5.12253464894612,1.00064260614973,3000
"mu[112]",-6.51023160668115,0.243654170749271,-6.98180758463674,-6.66971297182476,-6.50996158361461,-6.34463899340014,-6.02938363509251,1.00286657720133,850
"mu[113]",-4.63679863968962,0.207741503535732,-5.05516272107229,-4.77689218448707,-4.63422098664132,-4.48984407700873,-4.24368104500503,1.00159587762837,1800
"mu[114]",-4.01615587075781,0.20500662837801,-4.43080928272228,-4.15830145318413,-4.0092792644968,-3.87306480397962,-3.63334209666642,1.00221371172564,1200
"mu[115]",-3.89058989393087,0.200407038761837,-4.28303833864947,-4.02840260908912,-3.88903969636789,-3.75003977194765,-3.5013598673945,1.002014336601,1300
"mu[116]",-4.01506283607429,0.201247363525134,-4.40873082951253,-4.15438625422761,-4.00789868471573,-3.87629092233784,-3.63187543961926,1.00212136272679,1200
"mu[117]",-4.26640359966168,0.202430710750246,-4.67019003961397,-4.40277125568433,-4.26480438138011,-4.12507208342344,-3.87426912221856,1.00173209329386,1600
"mu[118]",-4.56388987224017,0.203149398642793,-4.95972508271214,-4.70086540238779,-4.56364116661442,-4.42546024009026,-4.1767456195262,1.00198067672571,1400
"mu[119]",-5.19829691668633,0.211824085641433,-5.60508313987238,-5.3370699585916,-5.19770845756185,-5.04902599620041,-4.78770856088717,1.00186295315176,1500
"mu[120]",-5.01966996098244,0.208851363231501,-5.42614214063077,-5.16038584744575,-5.01796640201176,-4.87446763104152,-4.61529871968781,1.00152782185841,1900
"mu[121]",-4.4720383404364,0.29337667345543,-5.03169298398811,-4.67002632335059,-4.47236146581365,-4.27192864735064,-3.90441702333807,1.00079651331995,3000
"mu[122]",-4.73199642596898,0.236814775816066,-5.19884142439095,-4.89213930508649,-4.73003151747188,-4.56578413737759,-4.27820376542807,1.00060254606829,3000
"mu[123]",-4.48851389947718,0.224046577795171,-4.92938592182349,-4.63944791199908,-4.48630058935462,-4.33664185116202,-4.05579581141256,1.00066969007685,3000
"mu[124]",-4.26164408939552,0.219107111170811,-4.68950394369751,-4.40535606840237,-4.26504048812681,-4.11011733937545,-3.83284088377776,1.00060516241283,3000
"mu[125]",-4.46034105400753,0.221057569132361,-4.89108124893495,-4.60991175919378,-4.45653346192203,-4.31461667492862,-4.02400592601995,1.00056843895499,3000
"mu[126]",-4.88673329266705,0.223078686295646,-5.31979958566113,-5.0401390161857,-4.88348196343375,-4.74114984022839,-4.44026839176545,1.00066770514987,3000
"mu[127]",-5.09320825454474,0.222675689486618,-5.52434855947858,-5.24247635429713,-5.09304511257419,-4.94272793898206,-4.65263489063109,1.00070159565266,3000
"mu[128]",-5.42810570622507,0.225681643648209,-5.86575678001445,-5.58140544409104,-5.43161564602381,-5.2810217244496,-4.9786688769114,1.0005772591018,3000
"mu[129]",-5.11933428108363,0.228556101407298,-5.55979697288039,-5.27290029547137,-5.11797453759121,-4.96583097490806,-4.66376642910541,1.00059864000207,3000
"mu[130]",-5.85336673820317,0.307308383364176,-6.47433072561543,-6.05920042138448,-5.85444989412012,-5.64600390392878,-5.26116037305012,1.00053849608215,3000
"mu[131]",-5.49422964954498,0.300030986515615,-6.10903094963567,-5.6956865125421,-5.49446900887735,-5.28971556941677,-4.9168410803599,1.00060606846913,3000
"mu[132]",-5.32938233100541,0.299687862908691,-5.93850730560311,-5.53267643196283,-5.32646673644538,-5.11945605479875,-4.75822118472603,1.00057662868621,3000
"mu[133]",-5.50769949907285,0.302084026829043,-6.13358301766724,-5.71154749255984,-5.50774633823874,-5.29725725482819,-4.92215027287266,1.00060272767242,3000
"mu[134]",-5.73446829144354,0.304567042476023,-6.36234314478709,-5.94368318030102,-5.73266549051822,-5.52269556010946,-5.14886530015495,1.00053119424913,3000
"mu[135]",-5.63852896648603,0.301112988689229,-6.24562900701339,-5.84035287398004,-5.63924971792222,-5.42669918499946,-5.07473342064947,1.00056061849731,3000
"mu[136]",-5.71958731444389,0.302913388840557,-6.33126217218413,-5.91988389326815,-5.7198867226242,-5.517834538251,-5.11752978430215,1.00056249498326,3000
"mu[137]",-6.0397654393615,0.30029743358227,-6.64946696045014,-6.24245002317665,-6.03981420187334,-5.83732765774659,-5.4600950143959,1.00053683037484,3000
"mu[138]",-6.08776191039395,0.927375760462956,-7.8730805630808,-6.70299183529411,-6.10009617491949,-5.45335226306223,-4.29817323387908,1.00256923764601,970
"mu[139]",-4.98599170751081,0.920149022966747,-6.80251374494687,-5.59848138278836,-4.99434418141573,-4.35804833239512,-3.19328856591,1.00292106602332,830
"mu[140]",-5.71572485474274,0.923743896961352,-7.54260085442539,-6.3314894413317,-5.72185348547575,-5.07986678973978,-3.90138475894293,1.00298703230293,810
"mu[141]",-5.05268922502145,0.132135829584256,-5.31534327092696,-5.14433518639351,-5.05296542278226,-4.96368221573892,-4.79487465112902,1.0022632183314,1100
"mu[142]",-4.42844890617936,0.116536351686654,-4.65911476302402,-4.50812100519158,-4.42684780013966,-4.35096170355084,-4.20238185116428,1.00059916240711,3000
"mu[143]",-3.86886947322354,0.10947766378279,-4.08935995249547,-3.94064785071108,-3.86744971372743,-3.79234292845991,-3.66100855389693,1.00098311477221,3000
"mu[144]",-3.5386684978551,0.108023657377778,-3.75178622806448,-3.61011917715195,-3.53803062165319,-3.46465330793772,-3.32752970557909,1.00072732590825,3000
"mu[145]",-3.48406384825783,0.105581247993401,-3.6877328170637,-3.55315226760877,-3.48218582282689,-3.4140076512402,-3.27976022959466,1.00082490785141,3000
"mu[146]",-3.46906257882224,0.107434713514427,-3.67615928904133,-3.54345283175966,-3.46871123964307,-3.39761603365528,-3.25761890795162,1.00070500238337,3000
"mu[147]",-3.77618216625808,0.110110016753361,-3.99377987307475,-3.85057878619656,-3.7732414719431,-3.70070914210907,-3.56597828765285,1.00090846783055,3000
"mu[148]",-3.91813219300648,0.113191304161949,-4.14099445090048,-3.99431291815373,-3.91714940613307,-3.8404676183709,-3.69558528090426,1.00071629150123,3000
"mu[149]",-4.08675418761504,0.117078291214834,-4.31353295716212,-4.16872582801153,-4.0882412844185,-4.00325308182788,-3.86119579427382,1.00051147640662,3000
"mu[150]",-5.06172503623634,0.127872531452129,-5.31006773480977,-5.15092733900413,-5.06472989227599,-4.97568524644207,-4.81107815933358,1.00148530925055,2000
"mu[151]",-4.25230865178222,0.113108163264251,-4.47413938821581,-4.32822490695623,-4.25297076950133,-4.17693245895122,-4.03442797915329,1.00080791604141,3000
"mu[152]",-3.67515500225632,0.104663509785948,-3.88007673643343,-3.74654535046812,-3.67211405909685,-3.6034173229827,-3.47909167422936,1.00056044606497,3000
"mu[153]",-3.41623326290626,0.103683839697672,-3.61694839814026,-3.48687565120482,-3.41598876364323,-3.3456001798513,-3.21454352553931,1.00063306801855,3000
"mu[154]",-3.42274839669704,0.105168986925224,-3.624002698043,-3.49485870779564,-3.42304157049146,-3.34974515256841,-3.21936673276163,1.00068337073009,3000
"mu[155]",-3.54443011089514,0.106381202012211,-3.75202558431943,-3.61663912021077,-3.54083114031859,-3.47311173937776,-3.34325727745734,1.00056293644457,3000
"mu[156]",-3.91617662846733,0.106898685912909,-4.13049073349438,-3.98854242732923,-3.91610470491188,-3.84501612544143,-3.70488707151886,1.00049958236191,3000
"mu[157]",-4.41867733019215,0.113765673027194,-4.64315959917263,-4.49352116257959,-4.4198954352204,-4.34296383438714,-4.19101215031957,1.00063104427477,3000
"mu[158]",-4.60455228545199,0.120753621863458,-4.84460598196921,-4.68730380828395,-4.60598660557392,-4.52379163697258,-4.36319104940541,1.0008709782944,3000
"mu[159]",-5.53147731888941,0.13058712745222,-5.78654359591041,-5.62072335314048,-5.53169852493626,-5.44275209239504,-5.27546542773938,1.00151691015073,2000
"mu[160]",-4.81122586718751,0.113145042416242,-5.03473227486054,-4.88753367511945,-4.81165432756864,-4.73651498881909,-4.59092398398927,1.00054124414684,3000
"mu[161]",-3.99975977295732,0.105751076889422,-4.2069243431223,-4.06968349832344,-3.99781380528956,-3.92865102954321,-3.80008853932867,1.00074933911989,3000
"mu[162]",-3.78156454397624,0.103042893113124,-3.98416865581825,-3.8510568036341,-3.78053697661885,-3.71279974039359,-3.5804358679635,1.00055888166757,3000
"mu[163]",-3.91703457969699,0.105272870665042,-4.12174690656973,-3.98762876650043,-3.91750378427133,-3.84771169053652,-3.71024079952231,1.00053584463298,3000
"mu[164]",-3.91417471220377,0.104681707641015,-4.11581767212841,-3.98824103689802,-3.91393647431957,-3.84336805110616,-3.70737535695418,1.00080387494817,3000
"mu[165]",-4.19667370174044,0.106259513022448,-4.40822689832744,-4.26933720568572,-4.19308526856658,-4.12176257540761,-3.99291829826801,1.00088620699016,3000
"mu[166]",-4.59279291217052,0.108322761486809,-4.80464978777702,-4.66455996907876,-4.59149997574863,-4.52015922011607,-4.3790341808438,1.0005626180782,3000
"mu[167]",-4.81490638581973,0.115534185718859,-5.03941684808031,-4.89385456144293,-4.81571748335831,-4.73661968574207,-4.58907416263862,1.00057224488484,3000
"mu[168]",-5.51842116782881,0.159330504456696,-5.82475171465593,-5.63059079476649,-5.51729040422936,-5.40836882906235,-5.20792846356332,1.00110681002529,3000
"mu[169]",-4.83630430934931,0.144925647513726,-5.12076376493888,-4.93529803200154,-4.83749218789368,-4.74121407507471,-4.55702092978586,1.00113436094751,3000
"mu[170]",-3.96434890369448,0.135951130900771,-4.22200059106585,-4.05787687634781,-3.96614020085679,-3.87307974984614,-3.69786199904291,1.00074425841749,3000
"mu[171]",-3.62864701594149,0.134354998475965,-3.88114360504533,-3.72157874157373,-3.63287029169709,-3.53670606128183,-3.35472264705267,1.00124411276613,3000
"mu[172]",-3.76192508752701,0.134836802127713,-4.01333366685802,-3.85617896705905,-3.76324742886862,-3.669315974505,-3.49012612775221,1.00081528394219,3000
"mu[173]",-3.96752835111117,0.136676939191298,-4.22706394479667,-4.06338568790728,-3.96772605543568,-3.87349559959963,-3.70120262989821,1.00116753116905,3000
"mu[174]",-4.48278156808314,0.141307211254974,-4.75712668012571,-4.57762216098044,-4.48524470506771,-4.38975735375413,-4.20260391175678,1.00092292596526,3000
"mu[175]",-4.98683667885884,0.1504133356615,-5.2747491687145,-5.08942138473209,-4.98528590717215,-4.88450943807499,-4.697104033544,1.0008184676784,3000
"mu[176]",-5.18524776467196,0.157951222038933,-5.4907528057301,-5.2901223360762,-5.18476234381972,-5.07715299882252,-4.88044293380021,1.00111497602556,3000
"mu[177]",-5.84414674627067,0.446427631211431,-6.75906707635254,-6.14321988417952,-5.84598682661447,-5.54541132232018,-4.98660442790952,1.00075073098099,3000
"mu[178]",-5.68650593364379,0.441457900863656,-6.58049002537126,-5.98255495931486,-5.68948057231393,-5.39201993550438,-4.83850857050975,1.00086432396409,3000
"mu[179]",-5.51041657471373,0.439981250658234,-6.39013970499666,-5.80799389390145,-5.51198323026847,-5.20985811830503,-4.67283819905011,1.00078987519198,3000
"mu[180]",-5.41894284034378,0.441040806350824,-6.31388801302251,-5.71288763857452,-5.41768626903344,-5.12730170499606,-4.58069627634972,1.00079002214061,3000
"mu[181]",-5.83279894845003,0.440339820268081,-6.71607907152107,-6.12338504854562,-5.83611658205046,-5.53099774976787,-4.99742109045956,1.00082370901001,3000
"mu[182]",-6.1819144263066,0.442233624027794,-7.06758536881006,-6.48311578983462,-6.18034221546122,-5.88401494217122,-5.34702536813262,1.00086425635587,3000
"mu[183]",-5.6436202028033,0.445302224860213,-6.5363025991011,-5.93171422358287,-5.64818603285517,-5.34780968381521,-4.78842260602889,1.00083084228597,3000
"mu[184]",-5.83089026811611,0.445135850893336,-6.71852555578805,-6.1302050159989,-5.83046840106774,-5.53309386768091,-4.97645163621044,1.00075176275577,3000
"mu[185]",-5.90351033807171,0.179580168186172,-6.2516022955227,-6.02485502796154,-5.90061658426068,-5.77974569971339,-5.55364661919446,1.00244801801708,1000
"mu[186]",-4.79412013348149,0.181820152101509,-5.155532635613,-4.91841860199557,-4.79004451615547,-4.67586965503138,-4.43774044773177,1.00080717169677,3000
"mu[187]",-4.47421933415218,0.170449960991469,-4.80729495152577,-4.59229564761647,-4.46952634436423,-4.35863700135474,-4.14081593002953,1.00137698223371,2300
"mu[188]",-4.27358621016766,0.16714546297689,-4.59872628573237,-4.38729453704677,-4.27646234748978,-4.16197721075851,-3.95320730087774,1.00111700722693,3000
"mu[189]",-4.37968783270585,0.166890552354673,-4.70829015979268,-4.49545437842479,-4.37687102039917,-4.26959353243939,-4.05687145728139,1.00116965162209,3000
"mu[190]",-4.56740058055438,0.168884992829678,-4.8937732174961,-4.68525142366826,-4.56841793883681,-4.45243658795677,-4.24781699376365,1.00104179230079,3000
"mu[191]",-5.07069142138428,0.172311201440171,-5.41444504386947,-5.18266246714723,-5.07327650204878,-4.95289493462871,-4.74642649440312,1.0012060667766,2800
"mu[192]",-5.27998151344085,0.172695394142164,-5.61823570394829,-5.3972016001992,-5.27935523994151,-5.16894449665084,-4.93566072297174,1.0010613553576,3000
"mu[193]",-5.55765140094154,0.180181012090558,-5.91655844201672,-5.67737345983263,-5.56109275656463,-5.43165645385793,-5.20710937517575,1.00073851735838,3000
"mu[194]",-4.24227536888037,0.880868132433768,-6.01362407420685,-4.84928451145404,-4.25024269746112,-3.61894425495068,-2.53169699812412,1.00109830520229,3000
"mu[195]",-5.37973955643177,0.264111398320986,-5.89483815358314,-5.55986277771059,-5.37677954365689,-5.20244296978206,-4.84744014127613,1.0006494698027,3000
"mu[196]",-4.74886077911643,0.254030541888064,-5.2591281232128,-4.92164797223615,-4.74444458943274,-4.58140572560048,-4.24303930058165,1.00118861318127,2900
"mu[197]",-3.78743686728107,0.257668218954453,-4.29559643491997,-3.96266115180842,-3.77963394954002,-3.61073475843325,-3.28281723777578,1.00080744584949,3000
"mu[198]",-3.7240906351921,0.252755192249726,-4.22152815398756,-3.89315340118146,-3.71757771841113,-3.55850507528478,-3.22375721792004,1.0009766651286,3000
"mu[199]",-3.95170884790009,0.251159147675822,-4.45699996952452,-4.12389485170883,-3.94667203229269,-3.78550666032648,-3.44422054560706,1.00098720239152,3000
"mu[200]",-3.92420797264435,0.252651583177382,-4.42361503374504,-4.09169384940137,-3.91908611984054,-3.75700969053952,-3.42476883514804,1.00101165040508,3000
"mu[201]",-4.73109739952737,0.255650528787777,-5.23507409534494,-4.90239613872634,-4.72383719392786,-4.56628514946707,-4.22448524820075,1.00090253959971,3000
"mu[202]",-5.29903518937444,0.264251403356309,-5.82391811799658,-5.4694272803983,-5.30035383136089,-5.12684798047305,-4.7721596894226,1.00099766401666,3000
"mu[203]",-5.59430660566145,0.269176054688298,-6.12656221960427,-5.77444677636916,-5.59033994058209,-5.41927757243939,-5.05674431113079,1.00122581268115,2800
"mu[204]",-6.05586928500866,0.265234852256428,-6.56035070851586,-6.23724130576028,-6.05688551330304,-5.87368309502427,-5.53735118770134,1.00142937414174,2200
"mu[205]",-5.47240759926923,0.260752732653312,-5.96750388120632,-5.65012932026491,-5.46995237459414,-5.29793188028088,-4.97473224355693,1.00165850849191,1700
"mu[206]",-4.97508650584209,0.258286560840976,-5.47066390919183,-5.15192571706108,-4.97569319474292,-4.79918762110043,-4.46955744363837,1.00134312834963,2400
"mu[207]",-4.84580518845131,0.259496335435033,-5.3474945899181,-5.02448853081852,-4.84718621814126,-4.67483784010598,-4.34771776133382,1.00153371662296,1900
"mu[208]",-5.01360772365343,0.263196184213607,-5.51683737713242,-5.19172989611847,-5.01536812383638,-4.83963343127212,-4.50041884305275,1.00158158812423,1800
"mu[209]",-4.29624268723585,0.262200140895408,-4.79549088171835,-4.47162099166678,-4.29340590162715,-4.11841443821714,-3.79440959451793,1.00121388250599,2800
"mu[210]",-4.80314039718905,0.257460926647419,-5.2950152542837,-4.97985569125576,-4.80004830402132,-4.62838097245535,-4.30666780254621,1.00117057175203,3000
"mu[211]",-4.97164761126158,0.260074686255018,-5.47290665347259,-5.14640086599674,-4.96896836334532,-4.79329387808587,-4.46341280921121,1.00136596366189,2300
"mu[212]",-5.64627016987429,0.264111592469673,-6.15512378248653,-5.82283746179076,-5.64540027961908,-5.47049997875939,-5.13577634418926,1.00167118386528,1700
"mu[213]",-5.60120924137626,0.351313318784648,-6.28756918905437,-5.83667206942731,-5.60143347402281,-5.3623842129835,-4.9278179208882,1.0013553969505,2300
"mu[214]",-4.36972266634446,0.350956638526587,-5.04691967581016,-4.60537971348465,-4.36494061596948,-4.13720319094065,-3.67762997034508,1.00085291036023,3000
"mu[215]",-3.927855410034,0.340167178784828,-4.59426136055989,-4.15397575744993,-3.92373908341228,-3.69951854502265,-3.25110471253839,1.00093902029111,3000
"mu[216]",-3.78617058591268,0.342678781670019,-4.46392389297008,-4.01593970759409,-3.78504801578936,-3.55119048514503,-3.0926938955349,1.00096282694931,3000
"mu[217]",-4.32482953942557,0.339716084523103,-5.02100259409686,-4.55010619391847,-4.32593417175135,-4.0956319689398,-3.6547299148455,1.00082441386428,3000
"mu[218]",-4.55827883722742,0.342764519587591,-5.23596353019991,-4.78331412405271,-4.55861672292378,-4.32493614526143,-3.89350075576691,1.00084343709675,3000
"mu[219]",-5.69149096229507,0.358727753580084,-6.41280525564863,-5.93271416665131,-5.69337773287278,-5.44552508208172,-4.99978922966637,1.00096905266675,3000
"mu[220]",-5.14985127997537,0.346328347794523,-5.81979533199061,-5.38477988096605,-5.14585643756955,-4.91345355015759,-4.47624767197833,1.00091339352182,3000
"mu[221]",-4.35050369720292,0.106568192236767,-4.55540845960057,-4.42152881053588,-4.34993206479693,-4.27944449398613,-4.14047041530427,1.00292460074113,830
"mu[222]",-3.77994490524757,0.0887804311553636,-3.95406556256688,-3.83744948914385,-3.78113545580927,-3.7222759807624,-3.60615511259281,1.00079223591605,3000
"mu[223]",-3.10211766799185,0.0749076405139874,-3.25013696630707,-3.15349007164757,-3.10276347433069,-3.05125290990855,-2.9573306023845,1.00119447797063,2900
"mu[224]",-2.60415579353644,0.0678865423081848,-2.73803242532398,-2.6487655487162,-2.60421421332862,-2.558629104608,-2.47315716250173,1.00093594517031,3000
"mu[225]",-2.62569278293872,0.0695650094910854,-2.76134857353982,-2.67288793655192,-2.6269017261358,-2.57939885590316,-2.48893288997898,1.00130210018725,3000
"mu[226]",-2.68405791543194,0.0728548936094969,-2.82811645199891,-2.73365610405923,-2.6839882035815,-2.6337404347484,-2.54320265578388,1.00057339975163,3000
"mu[227]",-3.02354626724715,0.0763881566202722,-3.17100515665689,-3.07471931859653,-3.0245123757826,-2.97337350133478,-2.87339567779713,1.0008196196897,3000
"mu[228]",-3.2913917164561,0.0776739719433169,-3.44767804065234,-3.34461727182288,-3.29046229179492,-3.23723323968434,-3.14599637227596,1.00193218300618,3000
"mu[229]",-3.51035594126761,0.0857141522104615,-3.67804681994326,-3.56601765418612,-3.50829837435532,-3.4525385018392,-3.34577537345297,1.00068187625698,3000
"mu[230]",-5.61499476305835,0.380792971216229,-6.3293043493996,-5.87787210901161,-5.62408034152052,-5.36062519014437,-4.86747808575169,1.00126402300241,3000
"mu[231]",-5.11309573886261,0.376297760679342,-5.84400046415543,-5.37801628417171,-5.11857378666149,-4.85967692062672,-4.35201471471768,1.00091817054815,3000
"mu[232]",-4.7667035815051,0.378116386517954,-5.50545218479262,-5.02907669988515,-4.77640609641471,-4.51136906265203,-4.01634999593982,1.00074866175838,3000
"mu[233]",-5.16064947696494,0.376317309735549,-5.879571177451,-5.42010215404967,-5.16655626733077,-4.91616540385798,-4.42570346459385,1.00086414336519,3000
"mu[234]",-4.70553899628405,0.378778563648435,-5.43760287970861,-4.96297799027684,-4.70571000307788,-4.44966858883905,-3.95861789808707,1.00100144063024,3000
"mu[235]",-4.94377815236773,0.381579567583103,-5.67519145101176,-5.20960801313011,-4.94451267944093,-4.68428293095181,-4.18926898257893,1.00086343536773,3000
"mu[236]",-4.63920786537297,0.395864074355115,-5.40759937185244,-4.9149297014955,-4.64002567042504,-4.36284690334021,-3.86569454965964,1.00079167027116,3000
"mu[237]",-6.22729923154644,0.382147416964579,-6.95752232451607,-6.48975621236564,-6.22906678484874,-5.98191265520094,-5.47491898512059,1.00068814244407,3000
"mu[238]",-4.39195331845433,0.110267358154143,-4.60167178861648,-4.46735333471752,-4.39048219234022,-4.3175130762524,-4.17217288634485,1.00238797826429,1100
"mu[239]",-3.97603437746113,0.0812407143690479,-4.1277181735785,-4.03163775923855,-3.97635410144727,-3.92032958566418,-3.81411706505654,1.000973261243,3000
"mu[240]",-3.76004567191476,0.0743089074337282,-3.90914483903538,-3.81043165358505,-3.76065378529415,-3.70965561841988,-3.61539222055884,1.00109501334271,3000
"mu[241]",-3.56720410443682,0.0768870468313818,-3.71677885617005,-3.61800824255911,-3.5678995599637,-3.51500581748764,-3.41462058681492,1.0010907515497,3000
"mu[242]",-3.54117905663212,0.0747245794736359,-3.68701871430001,-3.5923255019349,-3.54183173143613,-3.48932896388174,-3.39735971744836,1.00134246204153,2400
"mu[243]",-3.44313381038224,0.0703269242558674,-3.58184567456382,-3.49016735490658,-3.44243431262637,-3.39569222031845,-3.30767546202878,1.00054309692423,3000
"mu[244]",-3.60779466334676,0.0721735353193262,-3.75184968107491,-3.65527858592198,-3.61046170588184,-3.55920726514709,-3.46010354885479,1.00061097347468,3000
"mu[245]",-3.73151914415279,0.0795863881405218,-3.88683860451082,-3.78412136430451,-3.73155977477498,-3.6786102026459,-3.57204623560145,1.00074110118266,3000
"mu[246]",-3.82371161998939,0.0870157010648027,-3.99176764802237,-3.88256129075642,-3.82380928791457,-3.76495635757131,-3.64934196867578,1.00083639147803,3000
"mu[247]",-5.54782679760974,0.137549620966339,-5.81531626064757,-5.6411150900805,-5.5482350263613,-5.4533539312363,-5.28411990400555,1.00065406494525,3000
"mu[248]",-4.99748409092538,0.122012791288609,-5.23920741999674,-5.08367435039168,-4.99628602809735,-4.91474145805992,-4.76045622506058,1.00343215240312,680
"mu[249]",-4.16652302822852,0.113941550333361,-4.38554046325329,-4.24589262793001,-4.16435319625987,-4.08853021091619,-3.94725956557896,1.0023522691079,1100
"mu[250]",-3.77304013220246,0.111850430533083,-3.98891474861623,-3.85200398312501,-3.77201556197747,-3.69575876753852,-3.55390679036556,1.0030086486642,800
"mu[251]",-3.90858706096987,0.11136411368434,-4.12389383293834,-3.98563862182097,-3.90975663268355,-3.83256695625722,-3.69263863655185,1.00280077382168,870
"mu[252]",-4.14474000548354,0.113820886558575,-4.35904442724253,-4.22161434693465,-4.14294956738174,-4.06811029020309,-3.91532370096336,1.00358422347085,650
"mu[253]",-4.58162617728583,0.115594598591396,-4.80963061181521,-4.65835723477716,-4.58249150820724,-4.5031273924625,-4.34611921739802,1.0028859332965,840
"mu[254]",-4.79398386604879,0.117719012044143,-5.0213002452687,-4.87331266228023,-4.79444330333195,-4.71637204121484,-4.56853172607909,1.00278650529705,880
"mu[255]",-4.96487352889004,0.123086129012529,-5.20370645696121,-5.04960991083217,-4.96651748572341,-4.88114194328379,-4.72603105422529,1.00358321843707,650
"mu[256]",-4.56653010402404,0.544491836107041,-5.60544377939716,-4.93764158422026,-4.56087641911672,-4.21493556826554,-3.46829394816222,1.00079109620383,3000
"mu[257]",-4.02467483283974,0.540503602531987,-5.0637718909465,-4.39027116726975,-4.02417145639121,-3.6764853650307,-2.95332690963008,1.00085128815332,3000
"mu[258]",-4.33656748315185,0.541209212710601,-5.37554819347661,-4.70514817190246,-4.33829576296229,-3.9790889181953,-3.26993544980295,1.00085134569091,3000
"mu[259]",-4.97057634575849,0.544795480578623,-5.99883435606868,-5.34581104795559,-4.97073610928031,-4.60662985349132,-3.90448951886982,1.00079209967275,3000
"mu[260]",-5.60929371859606,0.136104266604082,-5.87474929980763,-5.70208228460813,-5.60910114747112,-5.52142310757735,-5.33410085813937,1.00091449388225,3000
"mu[261]",-4.84426356642125,0.119832421803646,-5.08557480098373,-4.92524432416568,-4.84419649449925,-4.76068540394369,-4.61567635496455,1.00080705507954,3000
"mu[262]",-4.22396037189523,0.114775411140212,-4.45221850465234,-4.30064137654468,-4.2257193000377,-4.14449131845559,-4.00159396783909,1.00057685424669,3000
"mu[263]",-3.99432697164634,0.109243014646857,-4.20521737607858,-4.06815424225655,-3.99434929231119,-3.92053857162428,-3.77994346881539,1.00061535556448,3000
"mu[264]",-4.17177245775821,0.111833959779405,-4.38503446390154,-4.24938186988586,-4.17183781962814,-4.09389290903918,-3.95504295475662,1.00055844353923,3000
"mu[265]",-4.31136299934236,0.113614332944479,-4.5278835889161,-4.3899040637085,-4.31185380982295,-4.23422620888334,-4.09015594384118,1.00085396547022,3000
"mu[266]",-4.64356054675439,0.116940906915972,-4.87170043337969,-4.72518795795948,-4.64377576986446,-4.56342126185516,-4.42202607363771,1.00073231246239,3000
"mu[267]",-5.00067227371191,0.117890521755887,-5.22878403672785,-5.07821108462238,-5.0021500331684,-4.91937719394805,-4.77108712721651,1.00059898982117,3000
"mu[268]",-5.15127877727545,0.124722447111894,-5.39443012122739,-5.23610885643476,-5.15083620448133,-5.06534015335245,-4.9116923962703,1.00085639666858,3000
"mu[269]",-4.99241891417105,0.26580085207304,-5.51433303390055,-5.16851046677136,-4.98992877982615,-4.80966805613543,-4.4910535425543,1.00113465162143,3000
"mu[270]",-5.00597549903232,0.256978823893829,-5.51222052517801,-5.17453503455738,-5.00703544713157,-4.82959046776351,-4.52115668756801,1.00135791765519,2300
"mu[271]",-4.67828330796039,0.253816572121666,-5.18029050011292,-4.85135532380062,-4.67908506080511,-4.50043826307653,-4.18076907941872,1.00134161989985,2400
"mu[272]",-4.88530899160123,0.253753856084273,-5.37495166427248,-5.05111807566681,-4.88579348883806,-4.71138748809039,-4.39583226658297,1.00145985711238,2100
"mu[273]",-4.6821202967101,0.254447623274095,-5.17923543145266,-4.85495575611388,-4.68378392260347,-4.5062944447176,-4.1874970817106,1.00107113901139,3000
"mu[274]",-4.90990424961367,0.25701813658133,-5.41878774122318,-5.08258518266077,-4.90695710799405,-4.73920510670891,-4.41218269518833,1.00111480500316,3000
"mu[275]",-4.72546459690361,0.265928985890682,-5.25880250948839,-4.90580876352544,-4.72329800930257,-4.53965340399549,-4.21095238450775,1.00114577650506,3000
"mu[276]",-6.43830374003474,0.220647531443771,-6.86719019519128,-6.59018036435609,-6.43888767382143,-6.28346498373636,-6.01140402484795,1.00102782323475,3000
"mu[277]",-5.302571632749,0.193902885212505,-5.68225821996566,-5.43175716375159,-5.30346211002528,-5.17090536017223,-4.92526678176353,1.00050080829105,3000
"mu[278]",-4.16054055719489,0.190130439587001,-4.53867853911838,-4.28973172571277,-4.15680411303999,-4.03196869317932,-3.7859055103769,1.00063717038258,3000
"mu[279]",-3.95389651294957,0.188861296146246,-4.33880148537549,-4.07644822309838,-3.95339773480251,-3.82278247195825,-3.57754925330436,1.00054558486952,3000
"mu[280]",-4.35718130219328,0.187605832999962,-4.73848423449913,-4.48107615235664,-4.35810314612524,-4.22712958400533,-3.99158329965988,1.00055410283035,3000
"mu[281]",-4.47565620088975,0.18834292636431,-4.84959589765938,-4.60290415639472,-4.47422258767116,-4.34581582890991,-4.11401137786502,1.00055070841804,3000
"mu[282]",-4.84770052945164,0.191167671359784,-5.22738158363252,-4.97759101965784,-4.84517954345521,-4.71666379350711,-4.48299002733266,1.00059708077448,3000
"mu[283]",-5.18259798113197,0.194612395472408,-5.56674932604924,-5.31384651049084,-5.18415795815852,-5.04897050585667,-4.79865597000216,1.00053320381093,3000
"mu[284]",-5.30142093392043,0.196631937486203,-5.70132375881315,-5.43064974076076,-5.30366944467876,-5.16949640337072,-4.92002731553409,1.00049899634683,3000
"mu[285]",-5.33231695437772,0.126078126922942,-5.58610223177088,-5.41716232871965,-5.33144331350378,-5.24490823927415,-5.08886903838802,1.00212762623634,1200
"mu[286]",-4.85037597319521,0.109104408992987,-5.06154555610357,-4.92396559076499,-4.84998352177436,-4.77536048606665,-4.6402008023026,1.00069103383601,3000
"mu[287]",-4.1805195203502,0.100128152452512,-4.37745668486086,-4.24684851540396,-4.18001366835,-4.11180579578162,-3.98987473436636,1.00139739917009,2200
"mu[288]",-3.96317736958062,0.0964457643860127,-4.15568759770996,-4.02967632415921,-3.96056721861987,-3.89504479965903,-3.77937333258573,1.00098969873126,3000
"mu[289]",-4.02289361882725,0.0972513121189875,-4.21575641550993,-4.08784876192137,-4.01979810321645,-3.95659318883117,-3.83544663813506,1.00092075400617,3000
"mu[290]",-4.07697989300692,0.100240949176417,-4.27670710149207,-4.14401280956026,-4.07582647301336,-4.00816295669569,-3.88502678236828,1.00140689963239,2200
"mu[291]",-4.45735656350417,0.103608539646241,-4.65644989002565,-4.52949063411551,-4.4575998730476,-4.38668541353908,-4.25356374296416,1.00152815474734,1900
"mu[292]",-4.68051293300126,0.103907938674493,-4.88253895127963,-4.75009188759922,-4.67943181837794,-4.61066764824808,-4.48034520678986,1.00098117785283,3000
"mu[293]",-4.84184412320664,0.10985516208622,-5.05286434317511,-4.91498707089277,-4.84082489310483,-4.76749848244306,-4.62781863267965,1.00072419392393,3000
"mu[294]",-5.28787354517455,0.373401837461665,-6.01575028295624,-5.54677411880996,-5.28962296057547,-5.0366021663079,-4.56607771301532,1.00083163711888,3000
"mu[295]",-4.82096407126204,0.367611298150179,-5.53992535510543,-5.07245603375661,-4.82344161970504,-4.57057045068805,-4.11451627489217,1.00079208033679,3000
"mu[296]",-3.88684164687332,0.367189547493348,-4.5936511011912,-4.13722996647407,-3.88739543524847,-3.641063004833,-3.1792679803719,1.0006745656354,3000
"mu[297]",-3.7422361852974,0.364374286823589,-4.45655973320303,-3.9848390445253,-3.74540862631092,-3.49864545008241,-3.03665043658079,1.00072851379277,3000
"mu[298]",-4.06553401063656,0.362783111837846,-4.76263813663251,-4.30909525637909,-4.06639809360257,-3.81577821911128,-3.3608814230502,1.00077774270779,3000
"mu[299]",-4.81651044228838,0.371583145127193,-5.53342180516506,-5.07464095152098,-4.82112717008465,-4.56648425527984,-4.08773069008957,1.00071536676282,3000
"mu[300]",-5.66088024561446,0.389444295638162,-6.40710521940187,-5.92874718643346,-5.66124254489771,-5.39927701770256,-4.90333856509699,1.00070874859356,3000
"mu[301]",-5.96811676955231,0.392779009298862,-6.72418339155582,-6.23437811694932,-5.96866537925584,-5.70685351488467,-5.19230867303697,1.0007976866471,3000
"mu[302]",-5.93704019403819,0.38556958462226,-6.70021164080697,-6.19716324429599,-5.94325241400162,-5.68189088178957,-5.17785910889206,1.00085706896036,3000
"mu[303]",-6.31213963272295,0.26468815625556,-6.84325743768191,-6.49092432192417,-6.31794395994791,-6.13529876071047,-5.78856372126631,1.00197638452014,1400
"mu[304]",-5.81313207361356,0.259485863717451,-6.32755781964398,-5.98105360548344,-5.81784444562173,-5.63899234928749,-5.29783784499618,1.00091938221516,3000
"mu[305]",-5.3091311279112,0.255992679278507,-5.82582278288667,-5.47436343308788,-5.31103805193291,-5.13844915631907,-4.80460675798048,1.00129511350049,2500
"mu[306]",-4.97698052353803,0.255042031196176,-5.4838610523743,-5.14163351370409,-4.98150866143549,-4.80974867557958,-4.48239073219828,1.00112409266524,3000
"mu[307]",-5.00975248155721,0.25401860032783,-5.52016969004806,-5.17456558009934,-5.00908002182363,-4.84651383907803,-4.51301390116689,1.00116542834795,3000
"mu[308]",-5.07645496037154,0.254829900365591,-5.58459726868358,-5.24298918679829,-5.0789200987727,-4.91136206088705,-4.57376647559025,1.00108754611067,3000
"mu[309]",-5.32543815966616,0.25749756548023,-5.83241237738513,-5.49819326646187,-5.32650105732676,-5.15422174676881,-4.82397396627775,1.00122873157804,2700
"mu[310]",-5.50148867663426,0.257455215069896,-6.0207065496737,-5.67010086386028,-5.50228223010064,-5.32979212253213,-4.99370155947838,1.00112870922778,3000
"mu[311]",-5.71459228672179,0.256951071887977,-6.20438749150081,-5.88194723022156,-5.7130901564192,-5.54727373230294,-5.20135507611213,1.00090004466394,3000
"mu[312]",-5.41723025278171,0.609166266461047,-6.57919391299965,-5.83040286707137,-5.42306004601561,-5.01957137892651,-4.20014658534314,1.00160178484797,1800
"mu[313]",-4.96351420559994,0.602685799610238,-6.09832319313474,-5.37034301886813,-4.97082260378763,-4.5683993944331,-3.75303929931206,1.0011836011293,2900
"mu[314]",-4.97969502751123,0.599031083122242,-6.09047963038255,-5.38637353163168,-4.98597927353642,-4.57929592523425,-3.7807217263585,1.00132395608665,2400
"mu[315]",-4.49715383954721,0.599231345814948,-5.62778942682866,-4.90340774803872,-4.5070637817135,-4.10200954663222,-3.30162833009812,1.00127049640459,2600
"mu[316]",-5.63469937176127,0.612344219920309,-6.78862985878601,-6.04688056956451,-5.63472824204581,-5.23616458330902,-4.41589175513602,1.00130734982257,2500
"mu[317]",-5.14958465142467,0.600894748484835,-6.28064673742957,-5.55626644165244,-5.145691118694,-4.75510943731179,-3.93825859996303,1.00123772839469,2700
"mu[318]",-5.19878063257103,0.600023354541963,-6.33320044263852,-5.60657834968057,-5.21403921413212,-4.79739484276607,-4.00028999722675,1.00117540283635,3000
"mu[319]",-5.90628338154293,0.184739536319105,-6.26700469840261,-6.03131296008703,-5.90605551878665,-5.77914526998339,-5.54184915750325,1.00112283148224,3000
"mu[320]",-5.41584575504139,0.174902468575493,-5.7544488442651,-5.53813514116309,-5.41446949733122,-5.29663509713108,-5.06678577517153,1.00339071440394,690
"mu[321]",-4.64575435378883,0.169324095818274,-4.97086146362198,-4.76425115066999,-4.64781765711755,-4.52995793912402,-4.3207956696727,1.00246838223752,1000
"mu[322]",-4.35033529728264,0.166838996214344,-4.67705386500492,-4.46661615603417,-4.35183225034359,-4.23691142599725,-4.02398633498044,1.00298486119525,810
"mu[323]",-4.50736001946454,0.167970275058512,-4.82883643313495,-4.62513679054412,-4.50823108706532,-4.39602732454611,-4.16886674908491,1.00284787728815,850
"mu[324]",-4.70293732612745,0.170596837504994,-5.03144004336631,-4.82413849286785,-4.69978362040782,-4.58732802556229,-4.37456815448033,1.00319476799369,740
"mu[325]",-4.98231591173941,0.170370831568879,-5.30062786473298,-5.10075723699312,-4.98174165265507,-4.86541633842944,-4.65073939240342,1.00277735403085,880
"mu[326]",-5.23964317233232,0.171776620742243,-5.56971176153073,-5.35741538302806,-5.24044355772386,-5.12430563877795,-4.90711553753424,1.00285973816588,850
"mu[327]",-5.34984427171361,0.175878294003491,-5.70027316360767,-5.46878426151622,-5.34840521147876,-5.23016614005151,-5.0055911075487,1.00348179284127,670
"mu[328]",-5.22060943540083,0.10360027510467,-5.41729185616984,-5.29372021653677,-5.22138166565622,-5.15138491096416,-5.01323643212898,1.00150060211256,2000
"mu[329]",-4.57882637828777,0.0820064130149835,-4.73690293915997,-4.6344188754393,-4.57711769584533,-4.52349557654511,-4.41328800307824,1.00126833318625,2600
"mu[330]",-4.06183749613567,0.071578293980022,-4.20470326996541,-4.10881355413543,-4.0623262794793,-4.01306583167695,-3.92616977921131,1.0005409720442,3000
"mu[331]",-3.72660339150368,0.0677521182753663,-3.85850690600251,-3.77260968717281,-3.72668760296296,-3.68082677291396,-3.59569752059515,1.00084345006688,3000
"mu[332]",-3.66661895383123,0.0669984237439556,-3.79595649874941,-3.71176571136574,-3.66729957298904,-3.62075866036274,-3.53342259080841,1.00085106592265,3000
"mu[333]",-3.76429508697197,0.0694404946239966,-3.9025005401288,-3.81258729203992,-3.76358720145319,-3.71596459461097,-3.6303470543228,1.00095879068302,3000
"mu[334]",-4.06652842421294,0.0721911990764519,-4.20819805617612,-4.1161410595442,-4.06630207939055,-4.01654084614251,-3.92873424012093,1.00064886402251,3000
"mu[335]",-4.30754988466832,0.0748531300008189,-4.45314258528389,-4.35794233760423,-4.30537006955774,-4.25693034587029,-4.16415395152746,1.00070548015936,3000
"mu[336]",-4.43220879709706,0.0853034958353326,-4.59860069383508,-4.48924811305504,-4.4311120157271,-4.37258195947681,-4.26756863444155,1.00125701500172,2600
"mu[337]",-5.40213949981608,0.23384076874975,-5.86916331607895,-5.55984567987629,-5.40302104485762,-5.24116725758039,-4.9579154596584,1.00070241459358,3000
"mu[338]",-4.78686795330636,0.223644127862186,-5.23648267247976,-4.93457198241706,-4.78870405117899,-4.63744533981922,-4.35045930563204,1.00084483739076,3000
"mu[339]",-4.07781551273834,0.223220578694783,-4.51931687585102,-4.22554542496753,-4.07577589566267,-3.92866005587289,-3.64098806577601,1.00082563184919,3000
"mu[340]",-3.78361583507629,0.221261078205754,-4.21643655536613,-3.93338526159426,-3.78470339051908,-3.63250550509527,-3.35567976278752,1.00081296371467,3000
"mu[341]",-4.40905456200487,0.226972779257461,-4.85105368526408,-4.5632356992473,-4.40893933839856,-4.25741760617692,-3.96897340197022,1.00068544857376,3000
"mu[342]",-4.53574945958582,0.224823518960807,-4.97471821784796,-4.68910199493191,-4.53832839712679,-4.38470264558829,-4.10793617069194,1.00092774386135,3000
"mu[343]",-4.99347090993857,0.23067874164101,-5.44630239791502,-5.15020588246408,-4.99885469832215,-4.836839302571,-4.54356943607871,1.00085506194719,3000
"mu[344]",-4.94915087966568,0.223999099203364,-5.39021569420335,-5.10157369350121,-4.95284730994834,-4.7976190008181,-4.51701915833874,1.00077606864061,3000
"mu[345]",-4.76849176287621,1.11595652535659,-6.97423928719933,-5.54090814255289,-4.77349574203838,-4.01037843411222,-2.56301755414458,1.00055356368853,3000
"mu[346]",-5.27494096789861,1.1146238641582,-7.49511220868675,-6.02790977885678,-5.29058798923809,-4.51615933236782,-3.10785228928992,1.00056534114179,3000
"mu[347]",-5.30368440153469,1.11477772378831,-7.50947370459281,-6.05196271910346,-5.31560794859445,-4.54385915232865,-3.11807902710427,1.00056669834217,3000
"mu[348]",-5.23378943213721,0.125791751342758,-5.47884465955702,-5.32011736980502,-5.23163798453772,-5.14816778608748,-4.99533922953356,1.0008095844288,3000
"mu[349]",-4.57465881681007,0.108991350843727,-4.78417953519785,-4.64763405527392,-4.57675350195624,-4.49976407359271,-4.35512683418242,1.00162558466138,1800
"mu[350]",-3.88680562263311,0.099785341986855,-4.08142583114339,-3.95336018154285,-3.886473898143,-3.81998802092118,-3.68750601678158,1.00140433984847,2200
"mu[351]",-3.5135197917941,0.0958762278680255,-3.69916010599837,-3.57808260935963,-3.51345823658472,-3.44917136151132,-3.32181261404202,1.00158129974708,1800
"mu[352]",-3.41641014601659,0.0960877834549761,-3.59740443554532,-3.485347808423,-3.41468014044606,-3.35005688005115,-3.23189752715078,1.00138657322783,2300
"mu[353]",-3.45663301897361,0.0982446557860574,-3.64559621057989,-3.52491714167796,-3.45700442612828,-3.38816101607036,-3.26672417381988,1.00255538213709,970
"mu[354]",-3.85949877463759,0.0977135879661613,-4.04986663999927,-3.92710382274275,-3.8590696688033,-3.79263109067702,-3.67041974277984,1.00229676778622,1100
"mu[355]",-4.23492660580958,0.102044496899622,-4.43275965086255,-4.30532769120479,-4.23347506081521,-4.16789243971726,-4.03597638154904,1.00153462505561,1900
"mu[356]",-4.35572741652331,0.107306379219841,-4.56606436958172,-4.42996047342503,-4.35593592579948,-4.28222698029074,-4.1436219680019,1.00188613988345,1400
"mu[357]",-5.38133080776611,0.136534125711734,-5.65609952263846,-5.47234847666015,-5.38023315483135,-5.2904686653661,-5.10470942924636,1.00088276466709,3000
"mu[358]",-4.73408320673265,0.121043464320032,-4.97582260010592,-4.8143355158464,-4.72949433370589,-4.65489656304342,-4.49818250697594,1.00097972769644,3000
"mu[359]",-3.76446890751083,0.108768904640187,-3.97662007009905,-3.83960249667062,-3.76726837890062,-3.68697847578299,-3.5531924105759,1.00099778916748,3000
"mu[360]",-3.45337953573299,0.108109790282296,-3.66509019283017,-3.52487109904254,-3.45501042194913,-3.37962488372325,-3.2441146367109,1.00096791956612,3000
"mu[361]",-3.56068204893949,0.108407201816188,-3.77236521840944,-3.63193730037946,-3.56220056365915,-3.48640714933439,-3.34594700707305,1.00081074671749,3000
"mu[362]",-3.87802639470688,0.110073297447436,-4.09378647918139,-3.95281428613483,-3.87533348366319,-3.80505886177137,-3.65940927811271,1.00141310500747,2200
"mu[363]",-4.31625191503107,0.113547906505039,-4.54551641147768,-4.38952634318498,-4.31410133863686,-4.23942984769867,-4.09701707369502,1.00121560836406,2800
"mu[364]",-4.71346649675543,0.123348099791049,-4.95321912130405,-4.79715386812381,-4.71255890448422,-4.62783471134752,-4.47416472561494,1.00079048672913,3000
"mu[365]",-4.88279082597834,0.127778429668369,-5.1443184501312,-4.96850116660231,-4.88325636863281,-4.79505568399083,-4.63124453623317,1.00100011417964,3000
"mu[366]",-4.6580344962241,0.392861204038374,-5.46199641890282,-4.91466914565431,-4.65428877618377,-4.40123719792778,-3.88791144126604,1.0005512327622,3000
"mu[367]",-4.49219203646622,0.389793217267651,-5.27523481962296,-4.74918028086069,-4.49357542344236,-4.23346741646726,-3.74505105724671,1.0005608629998,3000
"mu[368]",-5.02941384867522,0.392329484084526,-5.81270764570973,-5.28883750797816,-5.02435104545594,-4.76957819295428,-4.26151385891746,1.00054144736798,3000
"mu[369]",-5.04200484472351,0.391075353275108,-5.83357106400362,-5.30375984902703,-5.03611652479087,-4.7856384571589,-4.27889746523941,1.00058840243001,3000
"mu[370]",-5.57957355041756,0.393024205140451,-6.35495348781904,-5.83291816129053,-5.58151448928087,-5.31863190805231,-4.80555712992097,1.00055785434925,3000
"mu[371]",-5.00269983343887,0.398416577793657,-5.80314128716454,-5.26524980580733,-4.99611345827611,-4.72977484958285,-4.24254672647568,1.00060942018617,3000
"mu[372]",-5.70568875617719,0.182841975060695,-6.04998179197921,-5.83110955969044,-5.70496072146816,-5.58564878436285,-5.34477858916588,1.0005289355623,3000
"mu[373]",-5.16369377032249,0.169828828964706,-5.49062428496058,-5.28195788054362,-5.16327653384054,-5.04945347161821,-4.82759236810934,1.00118931076894,2900
"mu[374]",-4.37553375164653,0.169706545712788,-4.70775341931614,-4.49321727884203,-4.37428377183902,-4.26046272204468,-4.04880886925633,1.00073313332862,3000
"mu[375]",-4.06437562894801,0.166058425619305,-4.38087201135244,-4.17521118588882,-4.06407926930318,-3.95626494760656,-3.7411624064126,1.00090987219125,3000
"mu[376]",-4.26681759305875,0.165195975410388,-4.58761385754484,-4.37743353065727,-4.26635608380206,-4.15337985150387,-3.95017266127177,1.00087518461779,3000
"mu[377]",-4.54165370140923,0.167412740307538,-4.86574775203839,-4.6583374319743,-4.54271449182262,-4.42577965093831,-4.22700590452821,1.00106464086698,3000
"mu[378]",-4.90342672937775,0.169115960366619,-5.22355766606938,-5.01966166162199,-4.90625021320792,-4.78863402069487,-4.57316038279013,1.00087820895997,3000
"mu[379]",-5.28189556203818,0.173372314934228,-5.626873066511,-5.40002048814494,-5.28378270787992,-5.16348312018886,-4.94845614992097,1.00089590565075,3000
"mu[380]",-5.35951143934608,0.174257001535804,-5.68872940435865,-5.48080403577772,-5.3591343186811,-5.23912792270961,-5.02602055447178,1.00123212459106,2700
"mu[381]",-4.90884414078454,0.848302041305326,-6.60437281350137,-5.47475797774166,-4.88827877035532,-4.32831707124485,-3.25879373696866,1.00152774795187,1900
"mu[382]",-4.87333561355987,0.850884100489768,-6.56221259563431,-5.4306588246126,-4.86597515622887,-4.29138888986661,-3.21743726498908,1.00144696708975,2100
"mu[383]",-4.50773416102795,0.851674053071967,-6.18000299708473,-5.07960054068327,-4.48507523417634,-3.93181879195032,-2.82582863127235,1.00152476693912,2000
"tau",311.415261212371,137.603310886792,125.175013114772,216.134338653029,285.011606711615,381.522547755485,669.986281568028,1.00229774986197,2100
